digraph Tree {
node [shape=box] ;
0 [label="z_1 <= 0.447\ngini = 0.253\nsamples = 499\nvalue = [74, 425]"] ;
1 [label="gini = 0.0\nsamples = 220\nvalue = [0, 220]"] ;
0 -> 1 [labeldistance=2.5, labelangle=45, headlabel="True"] ;
2 [label="z_1 <= 0.621\ngini = 0.39\nsamples = 279\nvalue = [74, 205]"] ;
0 -> 2 [labeldistance=2.5, labelangle=-45, headlabel="False"] ;
3 [label="gini = 0.0\nsamples = 74\nvalue = [74, 0]"] ;
2 -> 3 ;
4 [label="gini = 0.0\nsamples = 205\nvalue = [0, 205]"] ;
2 -> 4 ;
}