digraph Tree {
node [shape=box] ;
0 [label="z_6 <= 0.5\ngini = 0.498\nsamples = 540\nvalue = [285, 255]"] ;
1 [label="gini = 0.0\nsamples = 276\nvalue = [276, 0]"] ;
0 -> 1 [labeldistance=2.5, labelangle=45, headlabel="True"] ;
2 [label="z_3 <= 0.993\ngini = 0.066\nsamples = 264\nvalue = [9, 255]"] ;
0 -> 2 [labeldistance=2.5, labelangle=-45, headlabel="False"] ;
3 [label="gini = 0.059\nsamples = 262\nvalue = [8, 254]"] ;
2 -> 3 ;
4 [label="gini = 0.5\nsamples = 2\nvalue = [1, 1]"] ;
2 -> 4 ;
}