digraph Tree {
node [shape=box] ;
0 [label="z_3 <= 0.359\ngini = 0.325\nsamples = 504\nvalue = [401, 103]"] ;
1 [label="z_2 <= 0.49\ngini = 0.491\nsamples = 182\nvalue = [79, 103]"] ;
0 -> 1 [labeldistance=2.5, labelangle=45, headlabel="True"] ;
3 [label="gini = 0.0\nsamples = 77\nvalue = [77, 0]"] ;
1 -> 3 ;
4 [label="gini = 0.037\nsamples = 105\nvalue = [2, 103]"] ;
1 -> 4 ;
2 [label="gini = 0.0\nsamples = 322\nvalue = [322, 0]"] ;
0 -> 2 [labeldistance=2.5, labelangle=-45, headlabel="False"] ;
}